[
  {
    "name": "conv_1_1",
    "input_shape": [
      64,
      64,
      3
    ],
    "output_shape": [
      62,
      62,
      10
    ],
    "num_neurons": 10,
    "weights": [
      {
        "bias": 0.05529399216175079,
        "weights": [
          [
            [
              0.005686734337359667,
              0.5303338170051575,
              0.4508902430534363
            ],
            [
              0.04920876398682594,
              -0.029017755761742592,
              0.23914846777915955
            ],
            [
              -0.06062067300081253,
              0.10217977315187454,
              0.2789939343929291
            ]
          ],
          [
            [
              -0.11416204273700714,
              0.2790183424949646,
              0.14520207047462463
            ],
            [
              -0.14735761284828186,
              -0.21102763712406158,
              -0.15575028955936432
            ],
            [
              -0.10717931389808655,
              -0.28811952471733093,
              -0.0018726304406300187
            ]
          ],
          [
            [
              -0.06842527538537979,
              0.14463859796524048,
              -0.012262370437383652
            ],
            [
              -0.36216601729393005,
              -0.14219844341278076,
              -0.1687535047531128
            ],
            [
              0.13701502978801727,
              0.10424327105283737,
              0.0899757370352745
            ]
          ]
        ]
      },
      {
        "bias": 0.15698345005512238,
        "weights": [
          [
            [
              0.11193452030420303,
              -0.02605212852358818,
              -0.17117753624916077
            ],
            [
              -0.1265387237071991,
              0.11026564985513687,
              -0.23662784695625305
            ],
            [
              -0.113533616065979,
              -0.06741151958703995,
              0.00405964907258749
            ]
          ],
          [
            [
              -0.20665371417999268,
              0.09713144600391388,
              0.18439456820487976
            ],
            [
              0.22104552388191223,
              0.06683074682950974,
              0.08409177511930466
            ],
            [
              -0.1461413949728012,
              -0.0339348129928112,
              0.09842409938573837
            ]
          ],
          [
            [
              -0.2126864641904831,
              -0.24490225315093994,
              0.10998662561178207
            ],
            [
              0.09896539151668549,
              -0.2154281884431839,
              -0.04586761072278023
            ],
            [
              0.12391256541013718,
              -0.06876956671476364,
              -0.17699216306209564
            ]
          ]
        ]
      },
      {
        "bias": 0.1929195076227188,
        "weights": [
          [
            [
              0.303184449672699,
              -0.22255642712116241,
              0.15304619073867798
            ],
            [
              -0.3187333941459656,
              -0.15920908749103546,
              0.33759790658950806
            ],
            [
              0.19879762828350067,
              0.30086207389831543,
              -0.14565040171146393
            ]
          ],
          [
            [
              -0.24475222826004028,
              -0.11444883793592453,
              -0.03977220505475998
            ],
            [
              -0.5766695141792297,
              -0.26573851704597473,
              0.2617243826389313
            ],
            [
              -0.059220075607299805,
              0.05921584367752075,
              -0.23321840167045593
            ]
          ],
          [
            [
              0.12728002667427063,
              -0.22710849344730377,
              0.34297189116477966
            ],
            [
              -0.3018116354942322,
              0.054087359458208084,
              0.4344978928565979
            ],
            [
              0.0469631627202034,
              0.14949560165405273,
              -0.1706211119890213
            ]
          ]
        ]
      },
      {
        "bias": 0.13662371039390564,
        "weights": [
          [
            [
              -0.2468211054801941,
              -0.07405976951122284,
              -0.056588608771562576
            ],
            [
              -0.0507829450070858,
              0.18406149744987488,
              0.11345680058002472
            ],
            [
              -0.28884875774383545,
              0.1144554391503334,
              -0.20539431273937225
            ]
          ],
          [
            [
              0.1392928510904312,
              0.2163618952035904,
              -0.0069107115268707275
            ],
            [
              -0.04500287026166916,
              0.18057486414909363,
              0.3434883654117584
            ],
            [
              0.09264994412660599,
              0.17778418958187103,
              -0.20051360130310059
            ]
          ],
          [
            [
              0.18443480134010315,
              0.18599331378936768,
              -0.2483920156955719
            ],
            [
              0.17116613686084747,
              0.015662359073758125,
              0.24437673389911652
            ],
            [
              0.08613235503435135,
              -0.18919849395751953,
              0.14660470187664032
            ]
          ]
        ]
      },
      {
        "bias": -0.01665310189127922,
        "weights": [
          [
            [
              0.0513838492333889,
              -0.18428930640220642,
              -0.13631688058376312
            ],
            [
              -0.020188838243484497,
              0.014654036611318588,
              -0.2090645283460617
            ],
            [
              0.19347725808620453,
              0.008561060763895512,
              0.12752579152584076
            ]
          ],
          [
            [
              0.10648118704557419,
              -0.09161978214979172,
              0.15131479501724243
            ],
            [
              -0.07589973509311676,
              0.03778020665049553,
              0.07684637606143951
            ],
            [
              -0.21972328424453735,
              -0.06632781028747559,
              -0.21909500658512115
            ]
          ],
          [
            [
              -0.11479348689317703,
              -0.10508662462234497,
              0.07523884624242783
            ],
            [
              -0.14848960936069489,
              -0.04849429056048393,
              -0.14041589200496674
            ],
            [
              -0.18590395152568817,
              0.031492143869400024,
              0.10233276337385178
            ]
          ]
        ]
      },
      {
        "bias": 0.10964040458202362,
        "weights": [
          [
            [
              -0.12156059592962265,
              0.053360339254140854,
              0.1554896980524063
            ],
            [
              0.08920006453990936,
              -0.12873634696006775,
              -0.03641781583428383
            ],
            [
              -0.26828017830848694,
              0.07801597565412521,
              0.004753198008984327
            ]
          ],
          [
            [
              -0.17305849492549896,
              -0.18035148084163666,
              -0.05541511997580528
            ],
            [
              0.06097719073295593,
              -0.1959034502506256,
              -0.18717913329601288
            ],
            [
              -0.20423458516597748,
              0.21905024349689484,
              -0.11647790670394897
            ]
          ],
          [
            [
              0.24856887757778168,
              0.24108672142028809,
              -0.180223748087883
            ],
            [
              -0.10905743390321732,
              -0.15688706934452057,
              0.07556945085525513
            ],
            [
              0.060350243002176285,
              -0.07040304690599442,
              0.21788306534290314
            ]
          ]
        ]
      },
      {
        "bias": 0.029825814068317413,
        "weights": [
          [
            [
              -0.19718821346759796,
              -0.16889642179012299,
              0.12187362462282181
            ],
            [
              0.06039876490831375,
              -0.14378444850444794,
              0.07948035001754761
            ],
            [
              -0.025484031066298485,
              -0.16321809589862823,
              -0.019062098115682602
            ]
          ],
          [
            [
              -0.032011669129133224,
              -0.14139215648174286,
              0.11273358762264252
            ],
            [
              -0.10067833960056305,
              -0.20742711424827576,
              0.13296671211719513
            ],
            [
              0.1675073355436325,
              -0.1571367383003235,
              0.22434785962104797
            ]
          ],
          [
            [
              -0.10166903585195541,
              -0.19185051321983337,
              0.08926276117563248
            ],
            [
              0.09333138912916183,
              0.037962570786476135,
              0.0007648404571227729
            ],
            [
              -0.05245523899793625,
              -0.1298869550228119,
              0.03659629821777344
            ]
          ]
        ]
      },
      {
        "bias": 0.11516544222831726,
        "weights": [
          [
            [
              -0.14063894748687744,
              0.3289564251899719,
              0.2985765039920807
            ],
            [
              0.09437553584575653,
              -0.1446211189031601,
              -0.3673877418041229
            ],
            [
              -0.2984912395477295,
              -0.11701186001300812,
              0.22971859574317932
            ]
          ],
          [
            [
              0.09642521291971207,
              0.413046658039093,
              0.3844977021217346
            ],
            [
              0.2882622480392456,
              0.1406082808971405,
              -0.2174244523048401
            ],
            [
              -0.24284584820270538,
              0.041832320392131805,
              0.24873341619968414
            ]
          ],
          [
            [
              -0.0859166830778122,
              0.11321970075368881,
              0.13290554285049438
            ],
            [
              -0.09440730512142181,
              -0.26801732182502747,
              -0.4094286561012268
            ],
            [
              -0.36698707938194275,
              -0.018707290291786194,
              0.08283202350139618
            ]
          ]
        ]
      },
      {
        "bias": 0.07734016329050064,
        "weights": [
          [
            [
              -0.03253738954663277,
              -0.026013268157839775,
              0.016034334897994995
            ],
            [
              -0.22023527324199677,
              0.1287398338317871,
              -0.04254328832030296
            ],
            [
              -0.008483637124300003,
              -0.016512051224708557,
              0.21947342157363892
            ]
          ],
          [
            [
              -0.22642101347446442,
              0.20579710602760315,
              0.11521881073713303
            ],
            [
              -0.10988859832286835,
              0.052845388650894165,
              0.13670620322227478
            ],
            [
              -0.12536796927452087,
              0.04135845974087715,
              -0.1554696261882782
            ]
          ],
          [
            [
              -0.18598666787147522,
              0.12068557739257812,
              0.12700338661670685
            ],
            [
              0.1888495832681656,
              -0.15277566015720367,
              -0.147127166390419
            ],
            [
              -0.1856405884027481,
              0.07612188160419464,
              -0.2162964791059494
            ]
          ]
        ]
      },
      {
        "bias": -0.03841400146484375,
        "weights": [
          [
            [
              -0.23960189521312714,
              -0.16422033309936523,
              0.09344270825386047
            ],
            [
              -0.22473567724227905,
              -0.025265153497457504,
              -0.3128132224082947
            ],
            [
              -0.05619398131966591,
              0.14468322694301605,
              -0.23834674060344696
            ]
          ],
          [
            [
              0.15905526280403137,
              0.39751049876213074,
              0.40521639585494995
            ],
            [
              0.07429175078868866,
              0.2791271209716797,
              0.15926817059516907
            ],
            [
              0.3116576373577118,
              0.47250816226005554,
              0.27831581234931946
            ]
          ],
          [
            [
              -0.14721138775348663,
              0.11997095495462418,
              -0.10465282946825027
            ],
            [
              -0.10158450901508331,
              -0.20062342286109924,
              -0.3983880579471588
            ],
            [
              -0.352329283952713,
              -0.22438788414001465,
              -0.14405152201652527
            ]
          ]
        ]
      }
    ]
  },
  {
    "name": "relu_1_1",
    "input_shape": [
      62,
      62,
      10
    ],
    "output_shape": [
      62,
      62,
      10
    ],
    "num_neurons": 10
  },
  {
    "name": "conv_1_2",
    "input_shape": [
      62,
      62,
      10
    ],
    "output_shape": [
      60,
      60,
      10
    ],
    "num_neurons": 10,
    "weights": [
      {
        "bias": -0.015000003390014172,
        "weights": [
          [
            [
              0.06984533369541168,
              0.12250980734825134,
              -0.06276966631412506
            ],
            [
              0.027698174118995667,
              0.28825634717941284,
              0.11451877653598785
            ],
            [
              0.1613343358039856,
              -0.07120175659656525,
              -0.02248406782746315
            ]
          ],
          [
            [
              0.06695717573165894,
              0.004763114266097546,
              0.03319444879889488
            ],
            [
              0.04770096018910408,
              -0.07627807557582855,
              -0.1811506152153015
            ],
            [
              -0.09521480649709702,
              -0.020181972533464432,
              -0.14486107230186462
            ]
          ],
          [
            [
              -0.061954572796821594,
              -0.07911273837089539,
              -0.3499084711074829
            ],
            [
              -0.24773694574832916,
              -0.21033312380313873,
              -0.01210795622318983
            ],
            [
              0.053867269307374954,
              -0.07325703650712967,
              -0.2212786078453064
            ]
          ],
          [
            [
              -0.13988210260868073,
              0.06434164941310883,
              -0.09834592044353485
            ],
            [
              -0.026962799951434135,
              0.12251508235931396,
              -0.08030775189399719
            ],
            [
              -0.22049900889396667,
              -0.03990422561764717,
              -0.13152480125427246
            ]
          ],
          [
            [
              -0.17654503881931305,
              0.1668800264596939,
              -0.138304203748703
            ],
            [
              0.03783787786960602,
              -0.18137794733047485,
              -0.10964040458202362
            ],
            [
              0.08009066432714462,
              -0.028887981548905373,
              -0.08581449836492538
            ]
          ],
          [
            [
              0.12367407232522964,
              -0.04227888956665993,
              -0.12297787517309189
            ],
            [
              -0.03683138266205788,
              -0.07924527674913406,
              0.07216089963912964
            ],
            [
              0.09089690446853638,
              -0.14476703107357025,
              -0.07134923338890076
            ]
          ],
          [
            [
              0.05118329077959061,
              0.013351107016205788,
              0.12198783457279205
            ],
            [
              0.15751278400421143,
              -0.048728566616773605,
              -0.17966294288635254
            ],
            [
              0.11106358468532562,
              -0.05154714733362198,
              0.15185466408729553
            ]
          ],
          [
            [
              -0.002612997544929385,
              -0.05618676543235779,
              0.04629763215780258
            ],
            [
              0.20909954607486725,
              0.2826078534126282,
              0.06790830194950104
            ],
            [
              -0.24769099056720734,
              -0.018110016360878944,
              0.03419424593448639
            ]
          ],
          [
            [
              -0.20570960640907288,
              0.16505253314971924,
              0.010972544550895691
            ],
            [
              -0.07593987882137299,
              0.18975234031677246,
              0.12766748666763306
            ],
            [
              -0.16967566311359406,
              -0.14139984548091888,
              -0.06672513484954834
            ]
          ],
          [
            [
              -0.09351741522550583,
              -0.05367553234100342,
              0.006337949074804783
            ],
            [
              0.09447716921567917,
              0.05620996654033661,
              -0.1393093317747116
            ],
            [
              0.09124802052974701,
              -0.008008070290088654,
              -0.08058559894561768
            ]
          ]
        ]
      },
      {
        "bias": 0.03633357957005501,
        "weights": [
          [
            [
              -0.028699593618512154,
              0.01408400945365429,
              0.053278084844350815
            ],
            [
              0.17656444013118744,
              0.020243415609002113,
              -0.27064037322998047
            ],
            [
              -0.03375490754842758,
              -0.07598341256380081,
              -0.054536327719688416
            ]
          ],
          [
            [
              -0.016911577433347702,
              0.011905811727046967,
              -0.004597058519721031
            ],
            [
              -0.15162792801856995,
              -0.040205202996730804,
              0.029262922704219818
            ],
            [
              0.12659160792827606,
              0.1467726081609726,
              0.13518129289150238
            ]
          ],
          [
            [
              0.08571384847164154,
              0.04543592408299446,
              0.1619890332221985
            ],
            [
              0.04412376508116722,
              -0.20871470868587494,
              0.13537569344043732
            ],
            [
              -0.11269881576299667,
              0.316618412733078,
              -0.1193186566233635
            ]
          ],
          [
            [
              0.1737903505563736,
              -0.04851733520627022,
              0.053338903933763504
            ],
            [
              0.2689688801765442,
              0.18783660233020782,
              0.0049596684984862804
            ],
            [
              0.08433520793914795,
              0.2502553164958954,
              -0.10368360579013824
            ]
          ],
          [
            [
              0.03098849020898342,
              -0.16898685693740845,
              -0.14307470619678497
            ],
            [
              -0.04081837087869644,
              0.1253221333026886,
              -0.175978884100914
            ],
            [
              -0.040029484778642654,
              -0.028231589123606682,
              0.1737002283334732
            ]
          ],
          [
            [
              0.007191381882876158,
              0.10486532747745514,
              0.09948095679283142
            ],
            [
              0.08876245468854904,
              0.04661615192890167,
              0.055014386773109436
            ],
            [
              0.11458297818899155,
              0.14941437542438507,
              0.14682719111442566
            ]
          ],
          [
            [
              -0.029932519420981407,
              0.06707341223955154,
              0.0011027005966752768
            ],
            [
              0.013172822073101997,
              -0.027043195441365242,
              -0.07705768197774887
            ],
            [
              -0.1878139227628708,
              -0.10642603039741516,
              0.15161097049713135
            ]
          ],
          [
            [
              -0.24196398258209229,
              0.2093714028596878,
              0.016427693888545036
            ],
            [
              0.18196193873882294,
              0.15705186128616333,
              -0.16816706955432892
            ],
            [
              0.2550819218158722,
              -0.012771722860634327,
              -0.03235609456896782
            ]
          ],
          [
            [
              0.05405253916978836,
              0.04333319142460823,
              0.18497972190380096
            ],
            [
              0.040979642421007156,
              0.04391923174262047,
              0.003401109715923667
            ],
            [
              0.06960181146860123,
              -0.16919413208961487,
              -0.01900867559015751
            ]
          ],
          [
            [
              -0.12346938252449036,
              -0.0845215693116188,
              0.03198058158159256
            ],
            [
              -0.09701372683048248,
              -0.31881439685821533,
              0.05198657885193825
            ],
            [
              0.0014515378279611468,
              -0.0015912456437945366,
              -0.13556411862373352
            ]
          ]
        ]
      },
      {
        "bias": 0.26450011134147644,
        "weights": [
          [
            [
              0.11858198046684265,
              0.08620305359363556,
              -0.22812843322753906
            ],
            [
              0.0737232193350792,
              -0.1764031946659088,
              -0.10877794027328491
            ],
            [
              -0.04786592349410057,
              0.06122968718409538,
              -0.22324822843074799
            ]
          ],
          [
            [
              0.0688820481300354,
              -0.12272901833057404,
              -0.11515816301107407
            ],
            [
              -0.1755588799715042,
              -0.18296514451503754,
              0.005947907920926809
            ],
            [
              0.05370483547449112,
              -0.17687486112117767,
              -0.07346649467945099
            ]
          ],
          [
            [
              -0.28695711493492126,
              -0.14942891895771027,
              0.22552116215229034
            ],
            [
              0.14913678169250488,
              0.25072580575942993,
              -0.13216601312160492
            ],
            [
              0.25203147530555725,
              0.013846390880644321,
              0.07630975544452667
            ]
          ],
          [
            [
              0.14870744943618774,
              0.26395735144615173,
              0.07945573329925537
            ],
            [
              0.02941100113093853,
              -0.06789202243089676,
              -0.09479090571403503
            ],
            [
              -0.13743452727794647,
              0.0012073514517396688,
              -0.19661739468574524
            ]
          ],
          [
            [
              -0.01009973231703043,
              -0.1716722846031189,
              0.1032852828502655
            ],
            [
              -0.005336238536983728,
              -0.015667693689465523,
              0.01772109791636467
            ],
            [
              0.15534654259681702,
              0.030132949352264404,
              0.059307970106601715
            ]
          ],
          [
            [
              -0.17051032185554504,
              -0.03172222524881363,
              0.017660612240433693
            ],
            [
              0.06734868139028549,
              -0.16958904266357422,
              0.0980442464351654
            ],
            [
              0.08474505692720413,
              -0.16626432538032532,
              -0.14391560852527618
            ]
          ],
          [
            [
              -0.047566138207912445,
              -0.12840814888477325,
              0.07308086007833481
            ],
            [
              -0.10277002304792404,
              0.03899145871400833,
              -0.08504311740398407
            ],
            [
              0.08088894188404083,
              0.07359552383422852,
              -0.1757054328918457
            ]
          ],
          [
            [
              0.2511260211467743,
              0.16259819269180298,
              -0.2731759548187256
            ],
            [
              -0.15424731373786926,
              -0.2542499899864197,
              0.1603444516658783
            ],
            [
              -0.03646847605705261,
              -0.02279706671833992,
              -0.0198900755494833
            ]
          ],
          [
            [
              0.1734747290611267,
              0.03886084258556366,
              0.013219695538282394
            ],
            [
              -0.04848269373178482,
              0.12644779682159424,
              -0.13532158732414246
            ],
            [
              0.17683625221252441,
              0.13510529696941376,
              0.06751107424497604
            ]
          ],
          [
            [
              -0.1525471806526184,
              -0.1715271919965744,
              0.09087955206632614
            ],
            [
              -0.030184892937541008,
              0.008808514103293419,
              -0.14952726662158966
            ],
            [
              -0.12190154939889908,
              -0.08360952883958817,
              -0.27969890832901
            ]
          ]
        ]
      },
      {
        "bias": 0.16449642181396484,
        "weights": [
          [
            [
              0.01370085310190916,
              -0.003117413492873311,
              0.018573859706521034
            ],
            [
              0.02700856886804104,
              0.0726592019200325,
              -0.16934508085250854
            ],
            [
              -0.013026679866015911,
              -0.06702490895986557,
              -0.02738550864160061
            ]
          ],
          [
            [
              0.21202805638313293,
              0.1058105081319809,
              -0.07208364456892014
            ],
            [
              -0.06420744210481644,
              0.011604615487158298,
              0.027805227786302567
            ],
            [
              0.00818086601793766,
              0.13248521089553833,
              0.1713949739933014
            ]
          ],
          [
            [
              0.15266969799995422,
              0.07938865572214127,
              0.1686062216758728
            ],
            [
              0.21102824807167053,
              0.20970553159713745,
              0.04996765777468681
            ],
            [
              0.25311100482940674,
              0.120435930788517,
              0.0902794823050499
            ]
          ],
          [
            [
              0.17864742875099182,
              0.14377900958061218,
              -0.08969362825155258
            ],
            [
              0.0035156651865690947,
              -0.1548624336719513,
              -0.038364484906196594
            ],
            [
              0.04785368591547012,
              0.010373460128903389,
              -0.048020996153354645
            ]
          ],
          [
            [
              -0.014619680121541023,
              0.15819314122200012,
              -0.14283199608325958
            ],
            [
              -0.1338491141796112,
              -0.027468981221318245,
              -0.09391266107559204
            ],
            [
              -0.11103012412786484,
              -0.16180108487606049,
              -0.02236912027001381
            ]
          ],
          [
            [
              0.12564800679683685,
              -0.10915327072143555,
              -0.053323157131671906
            ],
            [
              0.06013397499918938,
              0.07818517088890076,
              0.04390117898583412
            ],
            [
              0.05919521674513817,
              -0.05086110159754753,
              0.11842437833547592
            ]
          ],
          [
            [
              0.009561538696289062,
              0.13100337982177734,
              -0.0885411724448204
            ],
            [
              0.0943290963768959,
              0.007461306173354387,
              -0.08001946657896042
            ],
            [
              0.12241971492767334,
              0.1626623272895813,
              -0.17123454809188843
            ]
          ],
          [
            [
              0.006828694604337215,
              6.963577470742166e-05,
              -0.17743292450904846
            ],
            [
              -0.18081223964691162,
              0.020155085250735283,
              -0.12944959104061127
            ],
            [
              -0.10669642686843872,
              -0.1092572808265686,
              -0.01022006943821907
            ]
          ],
          [
            [
              0.08811519294977188,
              -0.010638792999088764,
              0.037426482886075974
            ],
            [
              0.029551351442933083,
              0.10919863730669022,
              -0.17812275886535645
            ],
            [
              -0.01921534352004528,
              -0.020105307921767235,
              -0.017948994413018227
            ]
          ],
          [
            [
              -0.13676193356513977,
              -0.06529264152050018,
              -0.03060491383075714
            ],
            [
              -0.16058501601219177,
              0.22819195687770844,
              0.17382000386714935
            ],
            [
              0.02250857651233673,
              0.1810695230960846,
              0.21420879662036896
            ]
          ]
        ]
      },
      {
        "bias": 0.3483165502548218,
        "weights": [
          [
            [
              0.032918818295001984,
              0.16698546707630157,
              0.18808385729789734
            ],
            [
              -0.18842415511608124,
              -0.19741851091384888,
              -0.3181258738040924
            ],
            [
              0.14529986679553986,
              -0.0633912906050682,
              -0.1235964298248291
            ]
          ],
          [
            [
              -0.17358721792697906,
              -0.14975450932979584,
              -0.12765149772167206
            ],
            [
              -0.1116621121764183,
              0.061584655195474625,
              -0.0584794245660305
            ],
            [
              -0.0361844040453434,
              -0.0742720440030098,
              -0.08337784558534622
            ]
          ],
          [
            [
              -0.16112861037254333,
              -0.20642298460006714,
              0.18931011855602264
            ],
            [
              -0.12355746328830719,
              -0.1905362457036972,
              0.071263886988163
            ],
            [
              0.05011044070124626,
              0.07991564273834229,
              0.07828167080879211
            ]
          ],
          [
            [
              -0.06476299464702606,
              0.05114796757698059,
              -0.1346709281206131
            ],
            [
              0.11902449280023575,
              -0.16854026913642883,
              0.12135276943445206
            ],
            [
              -0.19429254531860352,
              0.16592955589294434,
              0.11022176593542099
            ]
          ],
          [
            [
              0.08290845155715942,
              -0.08158741891384125,
              0.1433313637971878
            ],
            [
              3.642140654847026e-05,
              -0.07293203473091125,
              0.07498873025178909
            ],
            [
              0.14000684022903442,
              -0.16949677467346191,
              -0.12858793139457703
            ]
          ],
          [
            [
              0.14515793323516846,
              -0.11156363785266876,
              0.18032991886138916
            ],
            [
              0.0346059650182724,
              0.022723345085978508,
              0.1322818100452423
            ],
            [
              0.14743609726428986,
              -0.030711062252521515,
              0.03786199167370796
            ]
          ],
          [
            [
              0.10720982402563095,
              -0.11306586116552353,
              0.0857093334197998
            ],
            [
              -0.11355438083410263,
              -0.14333486557006836,
              0.03453052043914795
            ],
            [
              -0.004926359746605158,
              0.039875756949186325,
              -0.11913741379976273
            ]
          ],
          [
            [
              0.294634073972702,
              0.2950073778629303,
              0.21420356631278992
            ],
            [
              -0.21549411118030548,
              -0.017663640901446342,
              -0.14800578355789185
            ],
            [
              0.1540672779083252,
              0.13856224715709686,
              -0.07062943279743195
            ]
          ],
          [
            [
              0.09850916266441345,
              -0.024218950420618057,
              -0.05085296928882599
            ],
            [
              -0.1842269003391266,
              0.048921141773462296,
              -0.15639637410640717
            ],
            [
              0.15068410336971283,
              0.1781669557094574,
              0.13751555979251862
            ]
          ],
          [
            [
              -0.3126057982444763,
              -0.3406130373477936,
              -0.03664514049887657
            ],
            [
              -0.19378718733787537,
              -0.2823072373867035,
              -0.24569031596183777
            ],
            [
              -0.011888631619513035,
              -0.2881462574005127,
              -0.16774912178516388
            ]
          ]
        ]
      },
      {
        "bias": 0.04205586388707161,
        "weights": [
          [
            [
              -0.050872303545475006,
              -0.05784498527646065,
              0.08709856122732162
            ],
            [
              -0.02384408563375473,
              -0.09397155791521072,
              0.03822978958487511
            ],
            [
              0.07812274247407913,
              -0.041850049048662186,
              0.0914970338344574
            ]
          ],
          [
            [
              0.20612703263759613,
              0.10431799292564392,
              0.09797626733779907
            ],
            [
              -0.08422691375017166,
              -0.12570352852344513,
              0.03475036844611168
            ],
            [
              0.10499346256256104,
              0.17909479141235352,
              -0.07103309035301208
            ]
          ],
          [
            [
              -0.0803171768784523,
              0.14055944979190826,
              -0.0013921728823333979
            ],
            [
              -0.05157731845974922,
              0.14367206394672394,
              0.16281574964523315
            ],
            [
              0.1779191792011261,
              0.17450547218322754,
              -0.02203560434281826
            ]
          ],
          [
            [
              -0.17883086204528809,
              -0.04414394870400429,
              -0.06294535100460052
            ],
            [
              0.0421249195933342,
              -0.15779680013656616,
              0.08037769794464111
            ],
            [
              -0.2165309339761734,
              0.14304062724113464,
              -0.13399317860603333
            ]
          ],
          [
            [
              0.15507706999778748,
              0.132803812623024,
              0.011086942628026009
            ],
            [
              0.17226529121398926,
              0.12231457978487015,
              0.011460813693702221
            ],
            [
              -0.05953741818666458,
              0.009429561905562878,
              0.17142777144908905
            ]
          ],
          [
            [
              0.06041353940963745,
              0.05031156539916992,
              0.12597262859344482
            ],
            [
              0.10787922143936157,
              -0.04708215966820717,
              0.046055953949689865
            ],
            [
              -0.1617310792207718,
              0.16448339819908142,
              0.10370638221502304
            ]
          ],
          [
            [
              -0.07778611779212952,
              -0.07144667208194733,
              0.021185168996453285
            ],
            [
              -0.014000819995999336,
              -0.1030643954873085,
              0.0849083736538887
            ],
            [
              -0.14547759294509888,
              -0.13143889605998993,
              -0.14898383617401123
            ]
          ],
          [
            [
              -0.10427332669496536,
              0.013692626729607582,
              -0.041272081434726715
            ],
            [
              0.04340681806206703,
              0.011249948292970657,
              -0.06556360423564911
            ],
            [
              0.1761879026889801,
              -0.22885175049304962,
              0.22462105751037598
            ]
          ],
          [
            [
              -0.09201741963624954,
              -0.12168310582637787,
              0.02565200999379158
            ],
            [
              0.004468440543860197,
              -0.10384641587734222,
              0.08242103457450867
            ],
            [
              -0.10442862659692764,
              0.1434611976146698,
              -0.0901908352971077
            ]
          ],
          [
            [
              0.13533282279968262,
              0.22042447328567505,
              -0.0668957456946373
            ],
            [
              -0.07557129114866257,
              0.05515684932470322,
              0.23244601488113403
            ],
            [
              0.19463591277599335,
              0.07740461826324463,
              0.13794946670532227
            ]
          ]
        ]
      },
      {
        "bias": 0.014336160384118557,
        "weights": [
          [
            [
              0.0215923935174942,
              -0.16690650582313538,
              0.015022673644125462
            ],
            [
              0.2356853038072586,
              -0.16496746242046356,
              0.13733810186386108
            ],
            [
              -0.013798801228404045,
              0.12202651798725128,
              -0.09092853218317032
            ]
          ],
          [
            [
              0.1390375792980194,
              0.054428163915872574,
              -0.16656725108623505
            ],
            [
              -0.09568659216165543,
              0.07450474798679352,
              0.10316252708435059
            ],
            [
              -0.05642378702759743,
              0.11634775251150131,
              0.040672823786735535
            ]
          ],
          [
            [
              -0.09930086135864258,
              0.14880722761154175,
              -0.022999756038188934
            ],
            [
              0.07259044796228409,
              -0.20595431327819824,
              0.10381084680557251
            ],
            [
              -0.0962037593126297,
              0.057415831834077835,
              0.11492513865232468
            ]
          ],
          [
            [
              -0.07774700969457626,
              0.17856010794639587,
              -0.060527559369802475
            ],
            [
              0.025360064581036568,
              0.03321215882897377,
              0.024507902562618256
            ],
            [
              -0.10944100469350815,
              -0.02191023901104927,
              -0.15557676553726196
            ]
          ],
          [
            [
              -0.11318005621433258,
              -0.10387733578681946,
              0.016798585653305054
            ],
            [
              -0.1566755175590515,
              -0.05321263521909714,
              -0.058401837944984436
            ],
            [
              0.019487643614411354,
              0.12416136264801025,
              0.16156084835529327
            ]
          ],
          [
            [
              0.17321249842643738,
              0.15694253146648407,
              -0.1380874663591385
            ],
            [
              0.08091419190168381,
              -0.026859184727072716,
              0.055830758064985275
            ],
            [
              -0.08057769387960434,
              -0.03078553080558777,
              -0.14363344013690948
            ]
          ],
          [
            [
              0.051236167550086975,
              0.167289599776268,
              0.02166205458343029
            ],
            [
              0.0026116727385669947,
              0.14677225053310394,
              -0.13095352053642273
            ],
            [
              -0.005355099681764841,
              -0.14963918924331665,
              0.16254675388336182
            ]
          ],
          [
            [
              0.09966745227575302,
              0.1953197717666626,
              0.1834649294614792
            ],
            [
              -0.04643874615430832,
              0.003983447328209877,
              -0.1375250369310379
            ],
            [
              0.13853110373020172,
              0.02780631184577942,
              -0.021691713482141495
            ]
          ],
          [
            [
              -0.17471736669540405,
              -0.003995680715888739,
              0.0908963605761528
            ],
            [
              0.05729997158050537,
              -0.03710588812828064,
              0.14208091795444489
            ],
            [
              0.017629601061344147,
              0.14826329052448273,
              -0.04206182062625885
            ]
          ],
          [
            [
              0.04621823504567146,
              0.19993871450424194,
              0.12714999914169312
            ],
            [
              0.2284945249557495,
              0.06086286902427673,
              -0.09190674126148224
            ],
            [
              -0.014598064124584198,
              0.09851402789354324,
              -0.038618091493844986
            ]
          ]
        ]
      },
      {
        "bias": 0.10236959904432297,
        "weights": [
          [
            [
              0.13946866989135742,
              0.09682520478963852,
              0.1726500242948532
            ],
            [
              0.1549411416053772,
              0.20717331767082214,
              0.15288777649402618
            ],
            [
              0.2388300597667694,
              0.20189401507377625,
              0.2861592471599579
            ]
          ],
          [
            [
              0.1471264809370041,
              -0.15974710881710052,
              -0.15733277797698975
            ],
            [
              0.12168208509683609,
              0.046046722680330276,
              0.06857374310493469
            ],
            [
              0.09625067561864853,
              0.02841225638985634,
              -0.18588554859161377
            ]
          ],
          [
            [
              0.21173368394374847,
              -0.1557256281375885,
              0.19390174746513367
            ],
            [
              0.09824199974536896,
              -0.03420214727520943,
              -0.008039628155529499
            ],
            [
              -0.07244376838207245,
              0.12665802240371704,
              -0.14270643889904022
            ]
          ],
          [
            [
              -0.10829263925552368,
              -0.21082808077335358,
              -0.018086524680256844
            ],
            [
              -0.18155768513679504,
              -0.11288563162088394,
              -0.27771344780921936
            ],
            [
              -0.07960627973079681,
              -0.23326782882213593,
              0.029522554948925972
            ]
          ],
          [
            [
              0.1645551472902298,
              0.07067253440618515,
              -0.15274055302143097
            ],
            [
              0.09972383826971054,
              0.05966971442103386,
              0.05424782633781433
            ],
            [
              0.09747873246669769,
              0.17227253317832947,
              0.07710618525743484
            ]
          ],
          [
            [
              -0.142201766371727,
              0.06311608850955963,
              -0.09166456758975983
            ],
            [
              0.036629579961299896,
              -0.16250286996364594,
              -0.103266641497612
            ],
            [
              0.14275093376636505,
              -0.09976468980312347,
              -0.11892399936914444
            ]
          ],
          [
            [
              -0.062094107270240784,
              -0.07857262343168259,
              -0.06865912675857544
            ],
            [
              0.14247825741767883,
              0.017749130725860596,
              -0.17575152218341827
            ],
            [
              0.034957896918058395,
              -0.18680624663829803,
              -0.07339288294315338
            ]
          ],
          [
            [
              0.15000995993614197,
              0.15952040255069733,
              0.025392794981598854
            ],
            [
              0.008648335002362728,
              0.05714226886630058,
              0.10262136161327362
            ],
            [
              -0.02552706189453602,
              0.24016767740249634,
              -0.07566685974597931
            ]
          ],
          [
            [
              -0.0037647292483597994,
              -0.07180869579315186,
              -0.10357300192117691
            ],
            [
              -0.13562867045402527,
              -0.18133904039859772,
              0.10665327310562134
            ],
            [
              -0.1242426410317421,
              -0.08196112513542175,
              0.015137712471187115
            ]
          ],
          [
            [
              -0.08718607574701309,
              -0.11071056127548218,
              -0.19932056963443756
            ],
            [
              0.12107475847005844,
              0.031282905489206314,
              -0.008140921592712402
            ],
            [
              -0.10637729614973068,
              0.05876592919230461,
              -0.14555838704109192
            ]
          ]
        ]
      },
      {
        "bias": 0.09469860047101974,
        "weights": [
          [
            [
              -0.2105904221534729,
              0.0822480246424675,
              0.1040528193116188
            ],
            [
              -0.4372435510158539,
              -0.1394747942686081,
              -0.13298483192920685
            ],
            [
              0.07332262396812439,
              0.3908269703388214,
              0.38406169414520264
            ]
          ],
          [
            [
              -0.045297324657440186,
              0.09923484921455383,
              0.009942020289599895
            ],
            [
              -0.10473351180553436,
              0.1444244235754013,
              0.036649953573942184
            ],
            [
              0.05448807030916214,
              -0.1387009620666504,
              -0.09983030706644058
            ]
          ],
          [
            [
              -0.16015511751174927,
              0.11032894253730774,
              0.07853087782859802
            ],
            [
              -0.3843325972557068,
              -0.12732912600040436,
              -0.13995136320590973
            ],
            [
              -0.12522496283054352,
              0.1591143161058426,
              -0.1607891321182251
            ]
          ],
          [
            [
              -0.18878810107707977,
              -0.02027733065187931,
              -0.17432159185409546
            ],
            [
              0.09949029237031937,
              0.1345290243625641,
              0.33093181252479553
            ],
            [
              -0.0773019939661026,
              -0.12286946922540665,
              -0.07437783479690552
            ]
          ],
          [
            [
              -0.05076870322227478,
              -0.17143796384334564,
              -0.02844293601810932
            ],
            [
              -0.056532178074121475,
              -0.05581158027052879,
              0.13571591675281525
            ],
            [
              -0.0011971743078902364,
              0.1389237940311432,
              0.045508045703172684
            ]
          ],
          [
            [
              -0.14648418128490448,
              0.008594298735260963,
              0.06316842883825302
            ],
            [
              -0.1327832192182541,
              0.05533916503190994,
              0.0405786857008934
            ],
            [
              0.016748623922467232,
              -0.0036282374057918787,
              -0.06971527636051178
            ]
          ],
          [
            [
              -0.06318449974060059,
              -0.04867660999298096,
              0.0033905047457665205
            ],
            [
              -0.14766040444374084,
              0.07115902006626129,
              -0.1082526445388794
            ],
            [
              0.18094147741794586,
              0.075848788022995,
              0.010570191778242588
            ]
          ],
          [
            [
              -0.4461718201637268,
              -0.12685231864452362,
              -0.09470995515584946
            ],
            [
              -0.37245672941207886,
              0.06401273608207703,
              -0.10587650537490845
            ],
            [
              0.1323092132806778,
              0.2841692864894867,
              0.3288729190826416
            ]
          ],
          [
            [
              0.11332128196954727,
              0.07668281346559525,
              0.17105501890182495
            ],
            [
              0.07676290720701218,
              0.18461892008781433,
              -0.030073756352066994
            ],
            [
              -0.058217138051986694,
              0.06935951113700867,
              -0.10205817967653275
            ]
          ],
          [
            [
              0.0596625953912735,
              0.11606793105602264,
              -0.03409811481833458
            ],
            [
              -0.15589463710784912,
              -0.03166348114609718,
              -0.09652978181838989
            ],
            [
              -0.03323217108845711,
              0.14403294026851654,
              0.047793734818696976
            ]
          ]
        ]
      },
      {
        "bias": 0.01194368302822113,
        "weights": [
          [
            [
              -0.018009334802627563,
              0.03910083323717117,
              -0.12360009551048279
            ],
            [
              -0.16260863840579987,
              0.06422073394060135,
              0.1096610575914383
            ],
            [
              -0.09977766126394272,
              0.08435740321874619,
              -0.15145544707775116
            ]
          ],
          [
            [
              -0.15748460590839386,
              -0.02257942594587803,
              -0.12646594643592834
            ],
            [
              -0.17101167142391205,
              -0.10232622921466827,
              0.060039620846509933
            ],
            [
              -0.037509892135858536,
              0.13630206882953644,
              0.13288167119026184
            ]
          ],
          [
            [
              0.17928721010684967,
              0.06221248582005501,
              -0.1642381101846695
            ],
            [
              0.15033742785453796,
              -0.12057711184024811,
              -0.1177884042263031
            ],
            [
              -0.029275977984070778,
              0.13740703463554382,
              0.0059226457960903645
            ]
          ],
          [
            [
              -0.08302946388721466,
              -0.09800400584936142,
              -0.10539329797029495
            ],
            [
              -0.10979030281305313,
              0.12786464393138885,
              0.15422867238521576
            ],
            [
              0.1178753450512886,
              0.037778858095407486,
              -0.13282115757465363
            ]
          ],
          [
            [
              0.049398407340049744,
              -0.09233351051807404,
              0.020540276542305946
            ],
            [
              -0.07510533183813095,
              -0.0051919217221438885,
              0.03071579709649086
            ],
            [
              0.06637870520353317,
              0.14142747223377228,
              0.0987064316868782
            ]
          ],
          [
            [
              -0.06529685854911804,
              0.15087558329105377,
              0.1440766304731369
            ],
            [
              -0.09470537304878235,
              0.0037186474073678255,
              0.06637263298034668
            ],
            [
              -0.12547937035560608,
              0.16972284018993378,
              0.02478511817753315
            ]
          ],
          [
            [
              0.1591171771287918,
              0.13206999003887177,
              -0.128485769033432
            ],
            [
              -0.06297139078378677,
              0.07761325687170029,
              0.1717512309551239
            ],
            [
              0.006974450778216124,
              0.10103538632392883,
              0.15904146432876587
            ]
          ],
          [
            [
              -0.0991336777806282,
              0.10918153822422028,
              -0.1413096934556961
            ],
            [
              0.12189608812332153,
              -0.030078722164034843,
              0.16664233803749084
            ],
            [
              -0.03848503902554512,
              -0.044872891157865524,
              -0.05667019262909889
            ]
          ],
          [
            [
              -0.05376162379980087,
              0.12212453037500381,
              0.001853001187555492
            ],
            [
              0.007966096512973309,
              -0.052032239735126495,
              0.08911513537168503
            ],
            [
              0.10235605388879776,
              -0.1754452884197235,
              0.11022020131349564
            ]
          ],
          [
            [
              0.0523245595395565,
              -0.08961309492588043,
              0.028888678178191185
            ],
            [
              -0.182817280292511,
              -0.14101825654506683,
              0.07048813253641129
            ],
            [
              -0.08123685419559479,
              0.020566679537296295,
              0.1554270088672638
            ]
          ]
        ]
      }
    ]
  },
  {
    "name": "relu_1_2",
    "input_shape": [
      60,
      60,
      10
    ],
    "output_shape": [
      60,
      60,
      10
    ],
    "num_neurons": 10
  },
  {
    "name": "max_pool_1",
    "input_shape": [
      60,
      60,
      10
    ],
    "output_shape": [
      30,
      30,
      10
    ],
    "num_neurons": 10
  },
  {
    "name": "conv_2_1",
    "input_shape": [
      30,
      30,
      10
    ],
    "output_shape": [
      28,
      28,
      10
    ],
    "num_neurons": 10,
    "weights": [
      {
        "bias": 0.23078683018684387,
        "weights": [
          [
            [
              0.012396186590194702,
              0.106514573097229,
              -0.059165868908166885
            ],
            [
              0.0473598875105381,
              -0.06922586262226105,
              -0.010398129001259804
            ],
            [
              -0.10683242231607437,
              0.16645176708698273,
              -0.027350030839443207
            ]
          ],
          [
            [
              0.10285908728837967,
              0.01539174560457468,
              0.2610231935977936
            ],
            [
              0.09296361356973648,
              0.18699924647808075,
              0.16006100177764893
            ],
            [
              0.23022422194480896,
              0.10022423416376114,
              0.12351842224597931
            ]
          ],
          [
            [
              -0.11672525107860565,
              0.04385579749941826,
              -0.1581880748271942
            ],
            [
              0.06049090251326561,
              -0.09956669807434082,
              -0.054375164210796356
            ],
            [
              0.02838168479502201,
              0.19887058436870575,
              0.07822155952453613
            ]
          ],
          [
            [
              -0.011373915709555149,
              0.23057536780834198,
              -0.05637764558196068
            ],
            [
              0.12049947679042816,
              0.23012472689151764,
              -0.07205697149038315
            ],
            [
              0.13936983048915863,
              0.16423775255680084,
              0.1870001256465912
            ]
          ],
          [
            [
              0.25594502687454224,
              0.2258918136358261,
              -0.029594261199235916
            ],
            [
              0.21196569502353668,
              0.015812525525689125,
              0.0857214406132698
            ],
            [
              0.08068202435970306,
              -0.11682596802711487,
              -0.14986300468444824
            ]
          ],
          [
            [
              -0.03351468965411186,
              -0.027632812038064003,
              0.2219613939523697
            ],
            [
              0.23095473647117615,
              0.2543334364891052,
              0.11295383423566818
            ],
            [
              0.2238248735666275,
              0.14109322428703308,
              0.28218019008636475
            ]
          ],
          [
            [
              -0.0726231187582016,
              0.15335825085639954,
              -0.1863558143377304
            ],
            [
              -0.04176076874136925,
              -0.07777108252048492,
              -0.13225321471691132
            ],
            [
              0.11718687415122986,
              0.2275283932685852,
              -0.09361421316862106
            ]
          ],
          [
            [
              -0.2195308804512024,
              -0.06082876771688461,
              0.03180938959121704
            ],
            [
              -0.04475773125886917,
              -0.1764926314353943,
              -0.19074630737304688
            ],
            [
              0.02116229757666588,
              -0.10730506479740143,
              -0.12850704789161682
            ]
          ],
          [
            [
              -0.18486733734607697,
              -0.1645059436559677,
              -0.011868911795318127
            ],
            [
              -0.2320302575826645,
              -0.2014266848564148,
              -0.0683027133345604
            ],
            [
              -0.052557531744241714,
              -0.09631044417619705,
              -0.05061513930559158
            ]
          ],
          [
            [
              -0.12093799561262131,
              -0.02727758139371872,
              -0.003536903066560626
            ],
            [
              -0.17244760692119598,
              0.15485739707946777,
              0.08143389225006104
            ],
            [
              0.16484986245632172,
              -0.09964308887720108,
              -0.08044561743736267
            ]
          ]
        ]
      },
      {
        "bias": -0.057308949530124664,
        "weights": [
          [
            [
              -0.09050483256578445,
              0.12815767526626587,
              0.16287687420845032
            ],
            [
              0.183803990483284,
              0.20328572392463684,
              0.12396799027919769
            ],
            [
              -9.452683298150077e-05,
              -0.08443509787321091,
              0.10762670636177063
            ]
          ],
          [
            [
              -0.1335304081439972,
              -0.13950252532958984,
              -0.21879605948925018
            ],
            [
              -0.24052183330059052,
              0.03482829034328461,
              -0.2282852828502655
            ],
            [
              -0.22395604848861694,
              -0.0027982203755527735,
              0.060258373618125916
            ]
          ],
          [
            [
              0.07878094166517258,
              0.01724150963127613,
              0.0008939485996961594
            ],
            [
              0.11977328360080719,
              -0.18965256214141846,
              0.030577486380934715
            ],
            [
              0.13316135108470917,
              0.12767747044563293,
              0.10731510818004608
            ]
          ],
          [
            [
              0.183749720454216,
              -0.06252773851156235,
              -0.1400405764579773
            ],
            [
              -0.14373596012592316,
              -0.09674247354269028,
              -0.13893984258174896
            ],
            [
              -0.06367962062358856,
              0.14348967373371124,
              -0.010082925669848919
            ]
          ],
          [
            [
              0.050250597298145294,
              -0.09106949716806412,
              0.043723855167627335
            ],
            [
              -0.22382380068302155,
              -0.06815892457962036,
              -0.24148085713386536
            ],
            [
              -0.22215908765792847,
              0.13405835628509521,
              -0.03889786824584007
            ]
          ],
          [
            [
              -0.029541397467255592,
              0.039604585617780685,
              -0.06830139458179474
            ],
            [
              0.08915697783231735,
              -0.14642280340194702,
              0.010759814642369747
            ],
            [
              0.1909075230360031,
              0.06867215782403946,
              0.19335366785526276
            ]
          ],
          [
            [
              -0.14572195708751678,
              0.08272267132997513,
              -0.06870009750127792
            ],
            [
              -0.07135029137134552,
              -0.08967690169811249,
              0.17823578417301178
            ],
            [
              -0.016790935769677162,
              -0.0723540410399437,
              -0.12720520794391632
            ]
          ],
          [
            [
              -0.07198317348957062,
              -0.08225284516811371,
              -0.06538373976945877
            ],
            [
              0.009972434490919113,
              0.08435807377099991,
              0.21338078379631042
            ],
            [
              0.21013794839382172,
              0.27571287751197815,
              0.16767624020576477
            ]
          ],
          [
            [
              -0.09659308195114136,
              -0.08892834931612015,
              0.04783710464835167
            ],
            [
              0.07307176291942596,
              0.1534288227558136,
              0.08913584798574448
            ],
            [
              -0.09973634779453278,
              -0.15064027905464172,
              -0.046413201838731766
            ]
          ],
          [
            [
              0.06449321657419205,
              -0.06896071135997772,
              0.02535885013639927
            ],
            [
              0.12327052652835846,
              -0.053086407482624054,
              0.07709107547998428
            ],
            [
              0.17837822437286377,
              0.03317869082093239,
              -0.1522664576768875
            ]
          ]
        ]
      },
      {
        "bias": -0.026059698313474655,
        "weights": [
          [
            [
              -0.15007951855659485,
              -0.0826105996966362,
              0.06387073546648026
            ],
            [
              0.0058092703111469746,
              -0.14636841416358948,
              -0.149959534406662
            ],
            [
              0.13165725767612457,
              -0.040089916437864304,
              -0.17642652988433838
            ]
          ],
          [
            [
              0.10313130170106888,
              -0.07163388282060623,
              -0.14289669692516327
            ],
            [
              -0.1887245625257492,
              0.12385864555835724,
              0.1596568524837494
            ],
            [
              -0.08863251656293869,
              -0.013152513653039932,
              -0.0032642274163663387
            ]
          ],
          [
            [
              0.149405837059021,
              -0.11012585461139679,
              0.019091080874204636
            ],
            [
              0.009260197170078754,
              0.13162799179553986,
              -0.017952140420675278
            ],
            [
              -0.14289560914039612,
              -0.11887412518262863,
              -0.0405728742480278
            ]
          ],
          [
            [
              -0.04376418888568878,
              -0.11715403199195862,
              0.0011360639473423362
            ],
            [
              -0.16810937225818634,
              0.144540473818779,
              -0.1474577635526657
            ],
            [
              0.0034044382628053427,
              -0.14074952900409698,
              0.007462761830538511
            ]
          ],
          [
            [
              0.1627795696258545,
              0.024526961147785187,
              0.063499316573143
            ],
            [
              0.151484414935112,
              -0.03054751269519329,
              -0.15957514941692352
            ],
            [
              0.07261790335178375,
              0.07631902396678925,
              0.057671498507261276
            ]
          ],
          [
            [
              0.04817947372794151,
              0.04407208412885666,
              0.112233966588974
            ],
            [
              0.10323022305965424,
              0.08272760361433029,
              -0.17297306656837463
            ],
            [
              -0.10106699913740158,
              -0.011175623163580894,
              0.08249827474355698
            ]
          ],
          [
            [
              0.02647663652896881,
              -0.17062802612781525,
              0.1257237046957016
            ],
            [
              0.04216809570789337,
              -0.10751289874315262,
              0.02213270217180252
            ],
            [
              -0.17760638892650604,
              0.058295294642448425,
              0.015924541279673576
            ]
          ],
          [
            [
              -0.024231404066085815,
              -0.03134108707308769,
              0.16960833966732025
            ],
            [
              -0.042533110827207565,
              -0.13449126482009888,
              0.0006716327625326812
            ],
            [
              -0.18493595719337463,
              0.09931904077529907,
              -0.08988532423973083
            ]
          ],
          [
            [
              -0.1356506645679474,
              -0.06827053427696228,
              0.17023585736751556
            ],
            [
              -0.028375260531902313,
              -0.08702178299427032,
              -0.1335667222738266
            ],
            [
              -0.061089497059583664,
              -0.09718924760818481,
              -0.08918967097997665
            ]
          ],
          [
            [
              0.10196224600076675,
              -0.18089181184768677,
              0.14458014070987701
            ],
            [
              -0.009191855788230896,
              0.14005054533481598,
              -0.08165542781352997
            ],
            [
              -0.1418958604335785,
              0.0806783139705658,
              -0.030212635174393654
            ]
          ]
        ]
      },
      {
        "bias": -0.00868820771574974,
        "weights": [
          [
            [
              -0.15327812731266022,
              -0.15684106945991516,
              -0.09862995147705078
            ],
            [
              -0.1392715722322464,
              0.02297556959092617,
              -0.049294907599687576
            ],
            [
              -0.016246501356363297,
              -0.0766921415925026,
              -0.12175631523132324
            ]
          ],
          [
            [
              0.16165898740291595,
              -0.047843266278505325,
              -0.03394342213869095
            ],
            [
              0.16841118037700653,
              -0.1869945377111435,
              0.015181371010839939
            ],
            [
              -0.04449327290058136,
              -0.04168952628970146,
              -0.02938416227698326
            ]
          ],
          [
            [
              -0.09043948352336884,
              -0.12080211937427521,
              0.13188543915748596
            ],
            [
              0.18012335896492004,
              -0.08274321258068085,
              -0.1497965157032013
            ],
            [
              -0.10115096718072891,
              0.002968881046399474,
              -0.15274283289909363
            ]
          ],
          [
            [
              0.12413588166236877,
              0.15294747054576874,
              -0.1342247724533081
            ],
            [
              0.015276852063834667,
              -0.1625896394252777,
              -0.15562738478183746
            ],
            [
              -0.15663205087184906,
              -0.1001645028591156,
              -0.15538941323757172
            ]
          ],
          [
            [
              0.09208566695451736,
              -0.011178149841725826,
              -0.16122280061244965
            ],
            [
              0.10234502702951431,
              0.10364406555891037,
              -0.08907386660575867
            ],
            [
              0.0834117978811264,
              0.005532237701117992,
              0.06636765599250793
            ]
          ],
          [
            [
              0.16093949973583221,
              -0.02300426922738552,
              -0.1140693873167038
            ],
            [
              -0.1308731585741043,
              0.08393826335668564,
              -0.15887396037578583
            ],
            [
              0.04560978710651398,
              0.07385460287332535,
              0.16902343928813934
            ]
          ],
          [
            [
              -0.07676400244235992,
              0.07403796911239624,
              0.022018754854798317
            ],
            [
              0.002957345684990287,
              0.1573934704065323,
              0.036665670573711395
            ],
            [
              0.010597487911581993,
              -0.12240803241729736,
              -0.032673951238393784
            ]
          ],
          [
            [
              0.04240453243255615,
              -0.11351556330919266,
              -0.04438462108373642
            ],
            [
              0.006118774879723787,
              -0.015009335242211819,
              -0.08410405367612839
            ],
            [
              -0.0913618803024292,
              0.03194887191057205,
              0.08386318385601044
            ]
          ],
          [
            [
              -0.15381479263305664,
              -0.11809832602739334,
              0.12145192921161652
            ],
            [
              -0.05429745092988014,
              0.1322549730539322,
              0.03329390659928322
            ],
            [
              -0.13567295670509338,
              -0.10557886958122253,
              0.09567809104919434
            ]
          ],
          [
            [
              0.10477942228317261,
              -0.0323621928691864,
              -0.052374619990587234
            ],
            [
              -0.1321583241224289,
              -0.056856222450733185,
              0.003001779317855835
            ],
            [
              0.13107536733150482,
              0.1097632497549057,
              -0.04634663462638855
            ]
          ]
        ]
      },
      {
        "bias": 0.10796646773815155,
        "weights": [
          [
            [
              -0.1507304608821869,
              0.026182429865002632,
              0.1444566398859024
            ],
            [
              -0.08902022987604141,
              0.10641860216856003,
              -0.13652002811431885
            ],
            [
              -0.039226654917001724,
              -0.022110262885689735,
              0.12704786658287048
            ]
          ],
          [
            [
              0.3481782078742981,
              0.047287702560424805,
              0.04006631299853325
            ],
            [
              0.011805927380919456,
              0.01431749016046524,
              -0.09476961940526962
            ],
            [
              0.1401517689228058,
              -0.13059474527835846,
              0.11255893856287003
            ]
          ],
          [
            [
              0.11205146461725235,
              0.206292986869812,
              0.377199649810791
            ],
            [
              -0.028613677248358727,
              0.1723896861076355,
              0.0018812445923686028
            ],
            [
              0.11386403441429138,
              -0.06011408194899559,
              0.02250262349843979
            ]
          ],
          [
            [
              -0.05323943868279457,
              0.0508950911462307,
              0.29620838165283203
            ],
            [
              0.17404206097126007,
              -0.13460589945316315,
              0.09607753902673721
            ],
            [
              0.030427904799580574,
              0.10790881514549255,
              -0.0872771218419075
            ]
          ],
          [
            [
              -0.2658837139606476,
              -0.1246415376663208,
              -0.1741020381450653
            ],
            [
              0.009110961109399796,
              -0.2966923415660858,
              0.01331463735550642
            ],
            [
              -0.3045470714569092,
              -0.0006362893618643284,
              -0.3392437696456909
            ]
          ],
          [
            [
              0.058949440717697144,
              0.048762403428554535,
              0.09043963253498077
            ],
            [
              -0.14432676136493683,
              0.1221139207482338,
              0.07445020973682404
            ],
            [
              -0.0939536914229393,
              0.11804372817277908,
              0.11689592897891998
            ]
          ],
          [
            [
              0.0008243181509897113,
              0.20011498034000397,
              -0.0012665813555940986
            ],
            [
              -0.030231043696403503,
              0.03821808844804764,
              0.18870511651039124
            ],
            [
              0.12854346632957458,
              0.10788316279649734,
              0.23676030337810516
            ]
          ],
          [
            [
              -0.04490512236952782,
              -0.1087682768702507,
              -0.04493439570069313
            ],
            [
              0.19902750849723816,
              0.11878892034292221,
              0.34698039293289185
            ],
            [
              -0.0190410278737545,
              0.15304304659366608,
              0.2643662095069885
            ]
          ],
          [
            [
              -0.0857265517115593,
              -0.07916845381259918,
              -0.09775075316429138
            ],
            [
              -0.19191114604473114,
              0.02176794782280922,
              0.05157535523176193
            ],
            [
              0.04070887342095375,
              0.03840877115726471,
              -0.2585756778717041
            ]
          ],
          [
            [
              0.043157365173101425,
              -0.1509348303079605,
              -0.004716380499303341
            ],
            [
              -0.03060164675116539,
              0.0992133617401123,
              -0.1614258885383606
            ],
            [
              -0.0033713087905198336,
              0.10944762825965881,
              -0.16037793457508087
            ]
          ]
        ]
      },
      {
        "bias": 0.05496266856789589,
        "weights": [
          [
            [
              -0.13509221374988556,
              -0.08933935314416885,
              0.14709274470806122
            ],
            [
              0.05901208147406578,
              0.06928139925003052,
              0.07829902321100235
            ],
            [
              0.002249462064355612,
              -0.18047143518924713,
              0.03880225494503975
            ]
          ],
          [
            [
              0.030934272333979607,
              -0.02754145674407482,
              0.054108597338199615
            ],
            [
              0.25470981001853943,
              0.10047401487827301,
              0.14475074410438538
            ],
            [
              0.11149384081363678,
              -0.048276420682668686,
              0.00662165367975831
            ]
          ],
          [
            [
              0.05291430652141571,
              0.19186468422412872,
              0.07003743201494217
            ],
            [
              -0.11174073815345764,
              0.1881842464208603,
              0.1360943466424942
            ],
            [
              0.07475761324167252,
              -0.07336270064115524,
              -0.10000384598970413
            ]
          ],
          [
            [
              -0.07975286990404129,
              -0.24706263840198517,
              -0.26596394181251526
            ],
            [
              -0.23612700402736664,
              -0.01565210521221161,
              0.07619105279445648
            ],
            [
              -0.04895380511879921,
              -0.2918459177017212,
              -0.18951596319675446
            ]
          ],
          [
            [
              0.14410583674907684,
              -0.035015467554330826,
              0.1238742396235466
            ],
            [
              -0.11094899475574493,
              0.2838386595249176,
              0.1437252163887024
            ],
            [
              -0.026335369795560837,
              -0.02288086898624897,
              0.10518255829811096
            ]
          ],
          [
            [
              -0.1502123922109604,
              -0.1990748941898346,
              -0.12756723165512085
            ],
            [
              0.03942368924617767,
              -0.11737325042486191,
              0.08303513377904892
            ],
            [
              -0.05691595748066902,
              0.05863361805677414,
              0.018958356231451035
            ]
          ],
          [
            [
              0.01500424649566412,
              -0.13895905017852783,
              -0.019347142428159714
            ],
            [
              0.13329140841960907,
              0.1639011800289154,
              0.009016373194754124
            ],
            [
              -0.13765521347522736,
              -0.084888756275177,
              0.06924717873334885
            ]
          ],
          [
            [
              -0.20339468121528625,
              0.0933724194765091,
              0.043660301715135574
            ],
            [
              -0.06258143484592438,
              -0.012316839769482613,
              0.1963297426700592
            ],
            [
              0.10155200958251953,
              0.2652052640914917,
              0.3104066252708435
            ]
          ],
          [
            [
              -0.3128395676612854,
              -0.29480090737342834,
              -0.24699248373508453
            ],
            [
              -0.12206172943115234,
              -0.19278986752033234,
              -0.3234478533267975
            ],
            [
              0.03785733878612518,
              -0.26259225606918335,
              -0.30989569425582886
            ]
          ],
          [
            [
              -0.09871251881122589,
              -0.12416747212409973,
              0.047914400696754456
            ],
            [
              0.16389912366867065,
              0.011755961924791336,
              -0.017375703901052475
            ],
            [
              0.08810996264219284,
              -0.03147492557764053,
              -0.08156110346317291
            ]
          ]
        ]
      },
      {
        "bias": -0.03608671948313713,
        "weights": [
          [
            [
              0.07521034777164459,
              0.032540932297706604,
              -0.1476229876279831
            ],
            [
              -0.10402955114841461,
              -0.10514653474092484,
              0.10495533049106598
            ],
            [
              0.1492186337709427,
              -0.12216785550117493,
              0.07365602254867554
            ]
          ],
          [
            [
              -0.03775200992822647,
              -0.09271999448537827,
              -0.13640622794628143
            ],
            [
              0.007787204813212156,
              0.13475951552391052,
              0.08501224964857101
            ],
            [
              0.038410719484090805,
              -0.18841730058193207,
              -0.07372402399778366
            ]
          ],
          [
            [
              -0.06593351066112518,
              -0.06819465011358261,
              0.10519562661647797
            ],
            [
              -0.07410232722759247,
              0.09198575466871262,
              0.17219869792461395
            ],
            [
              0.060195110738277435,
              -0.015554492361843586,
              0.15317052602767944
            ]
          ],
          [
            [
              -0.10770566016435623,
              -0.0653575137257576,
              0.16414234042167664
            ],
            [
              -0.10187935829162598,
              -0.04773027449846268,
              0.038777489215135574
            ],
            [
              0.05748850852251053,
              0.041632648557424545,
              0.062476158142089844
            ]
          ],
          [
            [
              -0.025755811482667923,
              -0.07449911534786224,
              0.032723233103752136
            ],
            [
              -0.1973990947008133,
              -0.1767793446779251,
              -0.06521757692098618
            ],
            [
              0.029782965779304504,
              0.02546435222029686,
              -0.03705110400915146
            ]
          ],
          [
            [
              -0.09324422478675842,
              -0.14537101984024048,
              0.1318194717168808
            ],
            [
              0.00044559736852534115,
              -0.12903304398059845,
              -0.12332028895616531
            ],
            [
              0.14647816121578217,
              -0.10266920924186707,
              0.14999932050704956
            ]
          ],
          [
            [
              -0.06336613744497299,
              0.08409980684518814,
              -0.08580014109611511
            ],
            [
              0.1320841759443283,
              -0.1531745195388794,
              -0.1763831228017807
            ],
            [
              0.04841432720422745,
              -0.013923467136919498,
              0.08944347500801086
            ]
          ],
          [
            [
              -0.16080684959888458,
              0.04525016248226166,
              0.0414198562502861
            ],
            [
              -0.14402882754802704,
              -0.1412883847951889,
              0.055425647646188736
            ],
            [
              0.017574450001120567,
              0.18039840459823608,
              -0.009708801284432411
            ]
          ],
          [
            [
              -0.13676346838474274,
              0.014800326898694038,
              0.05060349404811859
            ],
            [
              -0.04449760541319847,
              0.025106903165578842,
              0.0704495757818222
            ],
            [
              0.10736533999443054,
              -0.050611693412065506,
              -0.014067563228309155
            ]
          ],
          [
            [
              0.037774667143821716,
              -0.1306772530078888,
              -0.13443945348262787
            ],
            [
              0.005202122963964939,
              -0.09896185249090195,
              0.16476544737815857
            ],
            [
              -0.057337626814842224,
              0.060669589787721634,
              -0.07003173232078552
            ]
          ]
        ]
      },
      {
        "bias": 0.009175595827400684,
        "weights": [
          [
            [
              0.1372649222612381,
              0.07310942560434341,
              0.09293381869792938
            ],
            [
              -0.01409513596445322,
              0.18146024644374847,
              0.19604869186878204
            ],
            [
              -0.008923155255615711,
              -0.19196783006191254,
              -0.13125421106815338
            ]
          ],
          [
            [
              0.014929680153727531,
              -0.09620988368988037,
              -0.15984515845775604
            ],
            [
              0.09972062706947327,
              -0.022798551246523857,
              -0.055318545550107956
            ],
            [
              -0.17736919224262238,
              -0.1110055148601532,
              -0.1602240949869156
            ]
          ],
          [
            [
              0.19213220477104187,
              0.09443316608667374,
              0.16093586385250092
            ],
            [
              0.0033481072168797255,
              -0.037993114441633224,
              -0.12192386388778687
            ],
            [
              -0.1685992330312729,
              -0.14172862470149994,
              0.07944667339324951
            ]
          ],
          [
            [
              -0.12170552462339401,
              -0.13767358660697937,
              0.07502470165491104
            ],
            [
              0.03369561582803726,
              -0.15253625810146332,
              -0.11817822605371475
            ],
            [
              -0.100308857858181,
              -0.016297699883580208,
              -0.10435254126787186
            ]
          ],
          [
            [
              0.04112238064408302,
              0.0213188286870718,
              0.11308953911066055
            ],
            [
              -0.0010636821389198303,
              0.08405053615570068,
              0.17462211847305298
            ],
            [
              -0.09219279885292053,
              0.06761076301336288,
              -0.008089696988463402
            ]
          ],
          [
            [
              -0.061231330037117004,
              -0.17982029914855957,
              -0.21145972609519958
            ],
            [
              -0.10267185419797897,
              -0.10252882540225983,
              0.08570924401283264
            ],
            [
              -0.025686895474791527,
              0.16276656091213226,
              0.022308165207505226
            ]
          ],
          [
            [
              -0.016727356240153313,
              0.14001750946044922,
              0.12016607820987701
            ],
            [
              0.141238272190094,
              -0.09624945372343063,
              -0.1236259713768959
            ],
            [
              0.08482365310192108,
              -0.150004044175148,
              0.09036954492330551
            ]
          ],
          [
            [
              0.08908596634864807,
              0.13462431728839874,
              -0.05469755828380585
            ],
            [
              0.09516725689172745,
              -0.1146475225687027,
              0.20659831166267395
            ],
            [
              -0.04286177083849907,
              0.029708532616496086,
              0.007774696219712496
            ]
          ],
          [
            [
              0.009699777700006962,
              -0.09435168653726578,
              0.06956082582473755
            ],
            [
              0.08944177627563477,
              -0.14151452481746674,
              0.08015299588441849
            ],
            [
              0.1195245310664177,
              0.06250646710395813,
              -0.15702283382415771
            ]
          ],
          [
            [
              0.1309179812669754,
              -0.05220411345362663,
              0.12045758962631226
            ],
            [
              -0.13330580294132233,
              -0.0012973755365237594,
              0.1349809318780899
            ],
            [
              -0.027604976668953896,
              -0.16998353600502014,
              0.1366959810256958
            ]
          ]
        ]
      },
      {
        "bias": -0.003776360535994172,
        "weights": [
          [
            [
              0.17279647290706635,
              -0.06964075565338135,
              0.04323156550526619
            ],
            [
              -0.025604162365198135,
              0.14047738909721375,
              -0.004479078575968742
            ],
            [
              0.029341932386159897,
              0.030494775623083115,
              -0.1335068941116333
            ]
          ],
          [
            [
              0.09240026026964188,
              -0.11094912886619568,
              0.08517055958509445
            ],
            [
              0.012049105018377304,
              -0.07688391953706741,
              0.1787722110748291
            ],
            [
              -0.023024313151836395,
              -0.1682383269071579,
              -0.178447887301445
            ]
          ],
          [
            [
              -0.1495608389377594,
              0.16619254648685455,
              0.1342262476682663
            ],
            [
              0.1576603502035141,
              -0.10944052785634995,
              -0.01419719960540533
            ],
            [
              -0.03726334124803543,
              -0.04629863426089287,
              -0.10657647252082825
            ]
          ],
          [
            [
              -0.17824728786945343,
              -0.08168867975473404,
              0.025643901899456978
            ],
            [
              -0.12964068353176117,
              0.09894271939992905,
              -0.10827117413282394
            ],
            [
              -0.16557833552360535,
              -0.0790194496512413,
              0.13079170882701874
            ]
          ],
          [
            [
              -0.02129005640745163,
              -0.14314498007297516,
              -0.056888509541749954
            ],
            [
              0.135353684425354,
              0.08285944163799286,
              -0.12849228084087372
            ],
            [
              0.07882042229175568,
              -0.16718867421150208,
              -0.1280491203069687
            ]
          ],
          [
            [
              0.17641016840934753,
              -0.09271540492773056,
              0.03547276556491852
            ],
            [
              -0.11888423562049866,
              0.0356455072760582,
              -0.1658187210559845
            ],
            [
              -0.1298179030418396,
              0.01567753776907921,
              0.054983582347631454
            ]
          ],
          [
            [
              -0.01863483153283596,
              0.1717471331357956,
              -0.07820325344800949
            ],
            [
              -0.17182089388370514,
              0.16218425333499908,
              -0.018255263566970825
            ],
            [
              -0.0573904886841774,
              -0.07738706469535828,
              -0.18235725164413452
            ]
          ],
          [
            [
              0.0639929473400116,
              -0.11592573672533035,
              0.060891155153512955
            ],
            [
              -0.10414804518222809,
              0.11736100167036057,
              -0.11977871507406235
            ],
            [
              0.051007796078920364,
              0.022053631022572517,
              -0.07404788583517075
            ]
          ],
          [
            [
              -0.146500825881958,
              0.1362224519252777,
              0.02524641901254654
            ],
            [
              -0.16801369190216064,
              -0.02728229947388172,
              -0.18054360151290894
            ],
            [
              0.16980679333209991,
              0.15864145755767822,
              0.052760049700737
            ]
          ],
          [
            [
              -0.020358631387352943,
              -0.06838512420654297,
              -0.09648600220680237
            ],
            [
              0.1290944218635559,
              0.11064353585243225,
              0.014462131075561047
            ],
            [
              0.047761350870132446,
              -0.14560990035533905,
              -0.08718659728765488
            ]
          ]
        ]
      },
      {
        "bias": -0.07763895392417908,
        "weights": [
          [
            [
              0.2694922685623169,
              0.24197611212730408,
              0.08383424580097198
            ],
            [
              0.0990048423409462,
              -0.0034763102885335684,
              0.15709368884563446
            ],
            [
              0.13681627810001373,
              0.07826804369688034,
              0.07874651998281479
            ]
          ],
          [
            [
              0.11787533760070801,
              0.23093080520629883,
              0.2037479430437088
            ],
            [
              0.01225980930030346,
              -0.014696580357849598,
              0.21061557531356812
            ],
            [
              -0.18517103791236877,
              0.06154485419392586,
              -0.10908146947622299
            ]
          ],
          [
            [
              0.32395485043525696,
              0.2772344648838043,
              0.2637268304824829
            ],
            [
              0.31862667202949524,
              0.20011520385742188,
              -0.022607995197176933
            ],
            [
              0.27067869901657104,
              0.25704577565193176,
              0.0024352900218218565
            ]
          ],
          [
            [
              0.00820037443190813,
              0.1509440690279007,
              -0.17756050825119019
            ],
            [
              -0.15615518391132355,
              -0.11637229472398758,
              0.0665382444858551
            ],
            [
              0.006587250158190727,
              0.10080977529287338,
              -0.036548878997564316
            ]
          ],
          [
            [
              0.2496289610862732,
              0.2784920930862427,
              0.06407802551984787
            ],
            [
              0.06363044679164886,
              0.038830626755952835,
              0.0685986652970314
            ],
            [
              0.23036327958106995,
              0.08188434690237045,
              0.13114432990550995
            ]
          ],
          [
            [
              0.13804379105567932,
              -0.06537020951509476,
              0.07749289274215698
            ],
            [
              0.06075216084718704,
              -0.10845176130533218,
